56.1994
-21.9879
18.024
8.92298
46.9243
43.6569
24.671
10.8362
74.4838
70.3083
-20.1674
4.44067
-21.2599
20.3469
39.2587
35.4553
5.262
-33.7233
88.4509
-19.2124
79.9977
-13.6879
-42.008
56.5114
19.895
-21.3372
2.62136
74.6731
-12.9018
30.206
-31.2011
-13.155
73.8171
73.7039
33.1652
40.3662
37.8056
-13.7729
13.3054
44.5511
71.2698
80.5691
77.1648
82.0393
64.7193
57.9568
2.69924
-12.0073
4.62396
27.4953
-15.4025
87.1741
-4.7525
51.3067
86.5
-29.8425
1.22728
-30.1165
25.3506
-42.0353
-11.9435
68.4218
73.6164
-13.8096
-38.9336
-27.7611
-26.846
14.1471
-22.4161
19.6959
-18.9065
-32.2985
33.5258
84.2376
65.2317
-0.522603
33.5368
-10.8865
-27.9641
7.35631
47.4281
96.8365
61.506
10.7409
3.01676
-0.280907
-37.5465
39.2492
51.3359
95.1596
95.0076
13.9365
70.0175
66.4841
88.1206
14.3047
-38.9737
-5.11964
46.8533
-33.3764
41.8035
-42.0706
-1.00357
52.262
2.72967
37.9183
-5.26102
-12.3269
38.5591
-18.8264
49.3041
34.7153
57.3567
-34.9747
23.3228
3.60418
38.4147
3.93039
6.27623
62.002
-15.9648
-40.7735
37.2454
-16.728
-3.04386
56.0572
11.062
21.6307
-30.1418
65.746
-24.2798
66.4895
-33.0053
18.2718
88.163
64.7176
-13.5413
33.4396
7.29103
-10.5988
-35.3758
-15.1474
-33.2465
29.9257
-25.7037
-26.1215
95.9582
93.8817
47.7295
55.172
-32.1457
-32.9647
19.9003
81.747
10.3646
12.8347
3.91676
22.5893
-37.1472
79.8547
17.3323
71.8168
60.4026
3.6564
-10.9465
-14.6418
-2.51524
42.3184
52.8262
48.0294
8.64217
7.80934
90.3658
-29.8881
49.3245
-32.37
83.9959
26.609
69.6796
66.2178
99.6142
56.8991
41.6764
-1.02104
14.4231
-36.8299
70.7597
44.7537
97.9134
18.0732
93.2658
65.2445
14.0377
26.31
59.0837
40.1879
88.3573
66.7833
89.2277
-12.1734
24.2304
-34.1288
-6.00336
68.9114
-23.9007
-39.8219
87.3831
14.284
81.1248
97.06
37.9545
-33.5122
33.8404
71.4393
-44.063
13.4732
-34.4771
-31.4465
-32.7198
-1.49521
-12.3172
50.0403
-32.3792
60.0627
92.0526
4.40041
38.5468
59.1058
-1.6897
-9.48089
63.2703
15.3579
15.2167
43.2253
-4.30461
33.9673
97.2524
23.9089
60.0056
89.4925
18.7324
73.8214
-9.72827
-7.68384
36.9964
25.4727
75.5052
20.9902
61.3092
16.1015
71.7729
-17.4261
83.4718
35.8899
73.7657
48.871
58.0842
73.8991
-15.0434
20.2822
-34.2099
1.71675
-49.5143
-16.674
62.4388
-44.2186
10.4955
-13.2425
70.1568
79.1703
93.687
98.0606
-12.6705
20.731
-26.8648
46.9201
35.0001
-11.7502
9.93747
31.2133
-16.5527
16.511
35.6594
-41.6095
69.1547
53.5079
21.4896
22.2428
15.0889
38.1811
62.9071
1.75567
18.0671
23.6079
-31.1658
72.3309
63.7839
41.4571
36.1356
31.8355
69.6179
-2.6191
-21.0665
80.8739
31.9794
13.5105
5.09147
-1.27372
4.76336
27.9536
54.5226
-19.1581
-48.8821
88.6578
97.9794
-6.82818
47.273
-28.6498
63.0237
-29.7036
-22.9708
-37.1606
44.2952
-14.9053
-28.4502
22.914
19.6972
61.9079
29.9041
-11.6504
53.494
25.2931
8.15911
20.2428
-11.0378
-0.85475
87.6421
14.8842
65.4034
54.8686
88.9456
7.51347
70.5637
-35.8269
89.5175
16.1659
28.011
-42.3861
29.4311
-36.059
15.3073
38.0661
-35.4042
40.9682
-25.7096
19.106
9.93412
95.2286
-47.2768
-18.9582
57.2378
40.3151
73.1217
-1.29636
3.34504
40.2223
2.6029
-44.4728
94.386
38.5154
65.7572
65.3855
96.5543
-7.77364
73.9259
95.2707
-22.1569
92.5663
67.2911
-24.9019
-44.7813
-37.1381
92.4153
-17.3947
12.7291
-22.1815
-19.9816
47.2516
47.3062
69.2383
95.0093
-25.306
14.9623
-10.8601
80.6569
87.1505
53.3979
55.5807
42.6404
23.6637
-46.1447
-2.81403
-21.1008
62.0106
49.3441
84.536
55.5327
91.8335
50.8105
51.3231
-6.20976
87.4295
40.9471
97.0511
-13.5195
34.1254
41.9288
-10.2283
51.7273
84.1035
28.0549
20.9332
6.62925
28.4899
42.8699
58.3186
54.6299
22.6801
66.0737
18.1768
10.9601
31.1467
13.345
21.9771
-15.564
11.1378
65.5939
45.1349
64.8777
55.6833
96.1897
88.8169
79.5482
-35.9528
-16.7084
52.4082
58.922
77.0472
19.4761
78.4532
53.7337
57.9964
61.5586
75.0035
-1.93779
-3.28742
69.3352
89.2606
5.53694
-39.0821
19.2231
73.678
27.7658
99.7656
-47.0687
20.8463
82.8515
58.4923
-36.2508
65.1528
10.1816
92.2031
-9.52714
93.6726
97.3446
-24.4033
64.9973
44.6441
65.808
-41.6104
-18.9382
67.8151
44.3554
41.07
54.9635
-31.4825
-24.0955
22.912
-22.4364
-4.72047
52.8801
-40.959
84.9028
-46.2017
48.4823
70.8002
-2.79167
74.3199
72.9599
71.3155
-23.9766
-27.6128
68.1046
-4.20769
8.0624
-46.6391
62.4129
19.724
13.5559
-5.30975
-30.4222
-34.3917
18.1659
-44.34
-12.5444
-29.4722
-26.9962
24.1845
94.1861
70.2517
-27.4642
0.492897
-21.964
92.1257
52.8345
-11.6311
-38.1761
42.4311
-15.2857
56.2649
10.3244
-38.2325
-35.1821
-40.743
9.9851
32.3547
12.4753
-22.8201
65.3377
-18.2368
19.552
33.8666
20.3948
-24.497
-9.07716
99.3518
79.6045
13.9454
89.026
99.5924
1.03906
68.3871
99.65
61.0517
46.6551
55.3188
58.8227
-16.4436
-43.999
59.4639
-13.6195
34.2566
15.4157
11.3664
-30.184
-29.4204
70.952
53.2786
48.7191
-22.3552
-35.0555
35.1399
21.9282
-23.2407
-37.0918
-0.792685
-43.1656
8.35832
20.5325
52.1729
87.4882
59.7922
-35.9963
-9.63136
48.8312
-44.6563
26.5103
67.6041
22.3062
99.8626
54.0372
-4.66211
86.023
74.4568
13.0276
43.603
19.3958
52.9165
-37.5771
58.6981
86.4587
1.1261
12.4943
6.39087
-8.94507
16.5284
-31.2514
54.5133
-1.73441
7.36696
83.4506
2.1203
-15.155
-10.1164
30.7911
61.6266
-11.872
57.7136
33.0421
-41.5742
97.2293
-47.2927
-20.2479
78.9879
-48.2909
96.4175
19.394
88.6058
-40.7845
27.0502
80.6751
90.8551
32.85
53.1102
53.2767
-14.3628
71.4867
36.7177
60.3522
41.9976
99.9003
90.3764
11.7469
18.8521
-49.0681
93.8793
43.82
-2.33463
91.8714
0.760108
63.1217
93.4327
4.00435
-14.6038
-6.61231
-2.99143
78.3016
61.9333
-12.0396
66.5903
-31.9786
43.7452
-16.1252
20.0026
-2.9751
14.9824
-7.49029
-38.6706
-11.0508
-39.161
-9.10974
31.3669
-41.1464
-36.6284
39.873
26.3942
35.0161
97.3993
-30.2948
-1.16327
8.69879
-28.4276
-21.256
23.9765
2.24906
8.00874
56.485
-3.97058
63.0651
15.7587
40.8792
46.66
97.026
-14.8609
9.81153
5.78274
27.4739
-40.3566
33.5603
-16.8815
-47.6535
70.7739
71.2906
-2.85804
41.575
32.9292
-14.1592
14.1191
-3.88726
68.3809
47.2632
7.25715
0.696938
-26.6374
91.7677
25.9309
-38.3328
11.8378
53.9589
-35.9417
42.7677
63.322
76.1242
76.5956
9.53548
38.4088
79.7954
26.8479
52.142
-38.8803
42.0142
45.097
59.1189
32.1707
-4.43539
64.4741
-22.7377
-40.8402
19.1092
77.8392
16.2625
-11.1062
86.3563
-35.1093
17.2734
-43.8747
96.6701
86.6848
-12.3133
60.7733
29.0028
41.4794
-8.14216
-45.8452
-4.5894
-7.51143
30.351
34.8583
15.0452
26.3712
15.0971
21.9758
-43.1619
84.3442
-22.8906
80.226
92.5645
40.5204
82.2459
-14.6151
-38.451
82.1476
88.8982
93.2212
-10.2317
30.7682
-26.1955
85.5892
53.7182
73.4258
1.01881
-45.0537
-13.6964
16.9334
38.5948
-17.8419
21.4574
95.0022
6.42431
83.7552
-11.8785
55.3482
75.9845
-25.6435
19.3484
-34.7734
34.4119
-23.2945
-42.5059
50.5093
67.5591
92.4731
29.1965
84.4022
-38.6236
58.7181
45.5918
-12.8743
47.07
70.1903
18.31
67.1075
-46.9304
45.454
-1.28643
-11.451
23.8173
22.4659
79.2378
-39.4399
-24.6006
68.679
82.2982
58.0442
18.1082
39.0995
92.357
39.9547
3.54583
61.3493
96.5816
-40.4262
91.7397
62.8022
4.93448
33.3803
63.6524
73.5046
-10.3858
95.2527
84.942
75.1856
76.3361
31.5777
-29.9804
26.4682
19.6439
45.0817
62.7325
89.1061
95.3847
-31.5646
-26.793
-27.7106
-45.2235
-0.384221
-18.7172
63.453
73.9978
17.6142
-42.6465
75.6972
42.646
60.4118
41.1336
-1.21372
42.5194
-45.0286
8.99012
-26.0925
-4.46919
-7.1136
89.336
2.38394
-37.3513
-9.15466
68.8563
96.9387
27.7321
58.7141
-22.5638
13.7955
-11.2979
75.5366
-3.42536
31.1384
-17.5287
-14.1625
-19.1384
88.8504
59.3687
98.4762
55.783
-49.1187
85.7251
9.42454
-46.9609
89.3859
38.217
78.0494
-4.69841
83.8673
94.5885
48.2041
30.0016
20.0364
43.8529
-18.8289
55.4865
-36.4283
75.9084
8.83576
66.6364
43.2636
98.309
80.6965
-7.98486
65.7943
12.3632
12.7506
-1.22542
55.4869
-30.2344
53.4747
63.1203
-23.0247
31.0856
-32.6713
-39.3453
-19.2691
68.8807
-22.7873
54.2837
33.1114
47.9483
31.851
37.9889
-9.09314
-41.4593
94.5336
93.7346
92.6009
29.3419
41.586
83.7504
-33.6985
67.0452
30.8019
58.1912
33.9095
81.974
-14.4774
-31.8657
2.70337
27.5225
27.8579
-38.4366
18.0701
-8.20902
-15.8536
75.9887
87.641
68.5803
83.5825
92.0821
-17.4238
33.4403
-12.1769
6.68994
-29.32
-32.007
26.7317
-7.66934
37.6331
93.6824
68.0998
40.3684
81.8341
-18.917
1.43641
95.3769
26.9536
96.9609
64.0576
-3.6373
-49.0861
3.27842
22.9597
82.3718
-28.9837
5.92982
73.4148
34.7994
-21.1735
7.78496
81.759
62.0935
-30.5587
-46.6285
90.1301
25.2883
26.1303
-23.3508
63.9341
-26.4445
-34.5067
-31.5185
27.794
14.4903
43.7948
94.9704
-12.2996
86.508
99.6626
58.395
99.2531
9.67692
-40.3032
23.2905
-13.2244
-37.8397
27.7897
22.3793
27.2592
-4.96912
-12.2008
38.555
-4.55527
26.7671
95.4986
89.7863
-39.9919
81.8392
81.232
20.5108
69.6654
88.3154
47.6533
51.6775
76.0967
7.26947
-5.62696
-16.7694
-5.66735
6.0627
36.7678
4.11742
74.7943
31.0324
54.7614
26.7173
47.2586
34.2181
-42.0757
89.6055
12.8126
-36.5685
30.8143
-33.2827
-35.4623
76.8994
74.1766
26.4466
-17.1121
71.9737
41.5862
-24.8627
29.8843
94.0772
60.0927
-33.0984
-3.55002
7.67487
-2.66543
-35.9299
76.0548
-37.7703
61.7666
82.5369
61.8688
99.7139
4.02255
-7.31946
-32.6014
-5.41994
77.8086
-13.3005
94.0872
-39.3637
62.3177
87.1127
20.2962
3.1183
-11.6792
10.8504
36.6449
84.8483
77.4937
-40.8047
-11.6163
99.6129
48.3131
59.9062
97.3946
-43.7341
-1.89352
-33.5671
-23.6759
12.9382
52.5452
1.39007
96.2133
-5.03874
-35.8441
99.1175
79.8807
77.1755
-17.8673
29.48
17.2
-38.7603
8.35315
-38.9867
36.0132
-15.4568
62.064
-35.6703
91.0725
-29.9688
-5.49209
-39.4079
67.1617
10.7444
74.3743
-9.29125
-7.55569
-4.86925
7.20861
-9.73158
2.47505
93.774
-34.3891
17.7757
62.7496
-40.6189
12.216
2.20532
78.8165
41.9299
23.4793
-8.92501
-27.2192
3.5604
6.83286
-38.2936
29.1458
43.1784
9.70583
85.7119
-26.8501
38.3837
-46.0976
96.5975
77.7535
43.9465
88.3683
-37.9102
64.3351
36.5165
-24.0716
-17.8567
59.247
29.3543
91.6369
-27.7226
71.942
88.1103
29.0538
39.6017
32.8142
95.6751
61.2597
38.8582
33.2493
81.9539
-2.64688
10.4365
11.0367
70.897
90.2929
57.9248
-49.709
64.7852
49.7142
31.0702
76.3889
75.7312
89.7078
13.4958
96.08
33.6894
-12.973
33.7591
20.7228
-22.6536
49.5073
7.13233
72.4658
72.9044
36.0933
91.3399
2.22892
35.3343
65.0441
-30.3453
57.1517
70.6916
88.1388
99.7263
6.82843
77.3537
-21.5913
38.0061
33.6137
-36.0504
35.5393
45.8072
78.5253
80.8295
0.693477
-20.9714
-25.1545
-8.35323
-7.35789
52.7474
-10.0479
12.9941
86.2319
41.3204
67.1825
48.2939
-16.4994
94.9286
60.736
37.8259
-30.0614
8.27589
11.9288
-3.68048
-2.73243
-17.3785
78.679
-16.7326
-48.0736
4.2657
0.739606
32.0541
52.8926
10.8388
40.2809
70.0929
-16.894
-48.8494
71.1293
-36.3701
98.0927
-22.9691
54.5182
61.5789
97.9826
68.5854
17.8105
16.9406
5.57633
44.2916
62.6676
-45.4369
95.2686
22.9163
-29.582
-17.9552
9.26988
67.6876
-4.23077
14.4985
-34.1375
74.5323
28.396
30.6579
85.0946
52.8587
-43.1362
91.7247
59.8287
79.1852
-24.5668
-15.1626
80.6028
-12.1445
32.5231
5.39212
29.6132
11.1397
78.519
60.7992
15.7631
89.7488
77.3598
46.9355
-33.7635
49.6036
42.1563
-11.5778
36.9995
14.9249
41.088
6.54368
90.4953
-47.7688
-32.5424
75.4983
-24.8576
-22.1741
-41.9373
-29.5315
95.3073
12.1452
29.9804
47.9723
89.4195
73.0009
0.682283
-7.67655
-31.7243
80.6964
25.5164
67.4716
20.4707
-9.18016
72.1746
45.932
75.5834
40.7263
-40.8662
9.60362
72.0425
-45.7986
35.9238
-6.44789
75.1871
-30.6634
91.2494
75.9376
96.4709
-2.89866
64.1156
-30.6624
48.2915
82.8522
53.8208
44.0809
-6.37816
-8.31368
-38.2625
-13.706
52.7225
-38.4842
-35.9835
99.9741
-19.8763
15.5042
16.9805
-31.0441
94.9721
-25.2981
-47.8293
59.5442
-12.5285
-28.3362
59.9002
75.425
39.437
79.0691
-30.386
79.1486
34.9953
-24.0732
-46.9783
8.97779
62.9464
54.8734
90.7092
80.4967
-9.54537
-26.9458
-1.14991
-5.59156
51.8831
67.4502
51.368
40.8868
9.26232
69.1694
82.0711
95.6883
0.976269
57.4962
-35.432
-47.1903
73.813
-16.3719
-27.5737
98.8669
38.3698
-16.8065
-11.6843
-31.7164
-39.7995
10.2862
-43.1381
83.0801
19.6146
-36.9222
40.9143
-2.27986
32.0352
28.2197
53.8676
-11.9264
-28.7081
30.5021
14.2064
14.6233
-26.1342
0.824487
1.83139
-3.04794
64.9794
-7.86183
13.3017
82.2667
81.9117
12.8392
22.2058
36.2267
41.2293
73.7696
98.1689
56.4062
57.8322
93.6017
9.3417
16.4981
52.8595
9.59262
34.2361
38.1283
8.56931
70.8134
71.0016
74.9379
40.5588
-0.0742469
4.19626
-25.5682
83.1833
31.1371
94.7302
-18.8396
58.5053
28.1638
79.7275
41.4041
7.47726
2.11851
63.3795
93.7986
-32.7936
65.4494
14.7079
55.1224
71.383
47.3866
-1.84429
-13.3996
68.8992
42.4721
16.9419
58.0502
-38.6441
77.83
94.8867
-42.9671
-14.0137
-31.029
99.2929
-26.5695
65.9991
-4.97
26.5587
69.4933
29.4348
10.0817
37.2167
11.0804
19.5793
35.1154
25.2946
48.279
19.5942
78.8283
-42.9167
80.5212
0.963621
19.9561
-49.7208
29.4153
14.3893
-35.4336
19.1278
98.5775
25.6181
73.6885
30.9852
-18.0102
-13.2017
-8.2096
66.3139
8.56013
67.6974
-17.8287
-44.5818
67.9416
98.291
12.6914
-1.78704
53.7627
62.8309
-40.6012
64.5779
88.844
-32.8297
77.5536
-48.8777
-39.6788
-0.920115
-30.3656
86.71
96.7405
34.9231
65.5917
0.0770882
88.8346
34.276
-0.977
93.7608
76.2767
-11.0148
32.0953
-11.3732
87.1072
62.6696
13.6871
98.4926
62.1358
-19.9068
98.5719
47.444
-46.707
-31.8611
-8.90305
63.5122
78.384
21.9565
33.729
-22.1008
82.4175
-8.53078
80.1158
73.0172
30.6385
62.1603
52.4876
71.2496
96.2792
-11.8815
10.3266
-46.0367
13.0735
43.2077
-25.4302
7.17689
79.7616
-35.2408
34.8755
35.2649
32.2761
96.2677
-1.14114
3.4865
50.8507
45.2478
-11.3292
-48.509
10.547
6.36625
62.6832
-31.1164
87.1044
44.056
75.1968
-41.5562
-25.1411
17.2467
-39.152
-24.5557
1.55243
59.801
-9.68505
53.0478
-14.2763
-22.7238
-12.9216
58.5162
-33.0608
41.5318
-43.7331
52.2243
76.3352
1.72166
64.9144
50.3875
-19.2437
-0.549825
88.3096
6.70016
-17.2452
83.5589
51.9346
17.3606
77.0535
-18.3091
-2.72917
-12.8244
-39.0687
-46.7609
-49.819
-27.0589
-44.8468
26.4772
72.5598
-38.516
12.4919
54.7063
2.83159
-49.5233
93.3144
-28.5003
-44.3661
-18.1785
61.1124
25.0828
-35.938
-38.3053
-25.7647
-17.9475
2.74701
-35.9958
-30.7152
16.2574
60.3919
76.6767
25.4341
83.4235
-7.78729
-23.8279
-39.7411
78.2614
68.2567
94.7181
-40.7852
-0.477459
47.3839
18.6095
-12.3106
67.914
56.6271
98.3454
-31.859
65.2603
72.1574
19.0238
9.59021
87.0721
-46.7246
14.7599
99.9001
-46.6609
58.4798
-16.206
39.2929
-42.2849
-3.45067
43.2759
52.911
-34.1207
-14.0502
35.7365
85.2413
60.0953
-27.5871
51.7418
3.18314
5.22702
-17.7329
60.8778
63.3232
58.5408
13.3053
56.9087
-4.42817
30.5921
31.0135
97.5612
0.406243
81.8412
-28.0575
59.717
3.76206
18.0233
11.5581
10.9813
-6.91893
-20.2959
72.8009
21.0652
-49.0469
44.6693
-1.24484
55.0251
67.4759
54.8712
84.4531
85.4613
96.5808
26.992
53.4418
-9.99543
5.82723
16.204
95.3468
-31.1323
42.64
97.8396
-38.7051
79.736
10.5088
-26.7362
-19.0045
-20.4577
-42.6943
10.6838
-34.4494
-48.0831
61.8804
83.3297
92.4202
3.51815
-9.48658
74.2648
44.834
36.5792
79.9036
75.3652
99.1304
87.1398
46.1715
30.3049
78.426
93.518
6.7
-21.6887
95.1191
-13.3064
91.9293
-6.06231
-47.1548
19.1402
-1.0497
1.91877
10.2367
16.0791
-30.7026
1.01924
-3.25158
-20.1584
98.0235
-27.1323
90.7595
28.9086
19.0055
-10.8914
49.1194
25.0222
-25.0181
48.7564
41.6276
92.2608
-41.5509
72.3056
-29.5731
70.1822
74.591
35.0887
90.0549
23.163
18.0721
0.260253
36.7445
43.1229
28.5801
-27.732
-44.3027
61.6794
-44.9335
-34.1837
36.8891
49.7564
25.6812
2.98899
86.7971
-24.8858
-29.2824
74.1936
53.3294
-40.7583
-42.6668
71.9711
45.1983
-39.3931
69.6053
75.8951
-33.8534
-40.7855
87.0215
-9.30557
-1.3872
95.3195
3.74393
-12.035
25.3673
-15.6821
66.2163
40.9819
-11.2931
73.7235
41.2068
68.7973
-41.4381
38.31
94.6633
-13.3119
88.3704
-31.6558
30.6215
-8.30312
23.4223
63.6142
26.085
15.4218
43.515
13.1078
-40.1214
28.957
-21.6817
42.1937
-41.9928
75.5683
-46.4075
82.6734
65.4215
74.3396
13.1488
14.027
27.4985
21.1517
40.969
-35.1053
13.1034
2.79247
13.9015
-38.5993
53.9901
39.9245
2.68843
-42.5572
-39.8072
-40.8832
-34.8006
72.4943
74.5504
23.4402
-16.6735
84.9751
75.9197
41.496
78.7703
15.893
99.9595
-40.537
63.5749
94.8641
52.7093
36.96
-40.8145
-26.5188
-3.88131
-27.8712
-11.99
-9.32043
36.8149
76.9545
95.1448
-11.3048
65.2447
-28.6
39.4779
90.9787
-7.56896
59.8601
-15.0249
-7.20874
33.538
-39.1789
79.322
-31.5367
-18.4018
60.6213
4.47375
47.5941
34.6874
67.9289
59.4117
21.4993
58.7687
52.742
52.8017
59.4548
-43.7945
85.884
-11.1993
42.3792
5.42774
76.2422
-47.8958
7.45243
-24.177
66.7481
80.567
-5.51421
48.77
-21.7437
34.9331
-25.4287
-35.6672
13.9105
-45.4627
-25.2032
0.721369
46.8961
41.2148
50.8764
99.6155
94.5863
76.474
78.3495
54.4032
58.353
30.7785
10.1907
84.3277
54.6954
68.3806
-16.0395
-36.5663
40.2674
52.9585
59.8821
-48.1976
12.815
-38.715
85.6406
15.0531
17.607
-18.8787
84.3489
18.0168
13.5684
27.8823
96.6011
28.0599
17.4404
-4.66976
54.6314
93.8043
-9.79867
59.1581
76.8066
-46.1443
13.0185
66.8552
4.16974
29.2653
62.6259
56.4707
-3.64391
67.3827
-1.91961
20.0002
47.1675
75.5214
-28.3256
77.6714
81.3505
-48.5457
60.4078
39.3473
39.0083
-29.8895
-32.8768
1.46565
-20.1569
11.4572
30.7603
-10.8761
99.7331
2.30475
-31.7677
53.4802
44.0479
22.3728
38.4312
-26.0928
-11.6212
59.0209
1.9766
-35.0517
24.9283
-21.0002
-0.557871
42.0698
97.4507
62.1622
39.8519
10.6485
-8.73345
22.8806
-34.2466
64.3447
-45.3052
68.3761
-6.9445
-14.8837
74.839
32.6495
42.1988
-30.8657
-3.95042
92.9935
43.2367
69.4352
-45.4479
-47.7672
-34.8276
54.7071
24.6121
80.8132
-24.4959
17.4586
82.646
94.9067
68.5853
58.5451
58.5647
-30.9323
21.4386
44.6821
65.6977
96.1903
0.445708
50.5797
98.9631
-34.9488
-35.0905
31.1206
84.815
11.0343
-47.5384
8.97272
29.3576
43.0415
96.5688
95.8242
94.149
14.3791
69.3455
48.2797
29.5307
87.6257
-17.1367
68.024
39.661
-0.212502
-1.35987
1.37572
48.7894
13.1587
90.7258
-42.9852
97.5432
42.9793
66.9982
15.5173
66.1059
44.6187
84.68
21.6505
94.7998
36.0474
72.8399
78.1586
68.2761
37.6946
2.70528
91.7915
82.3075
-31.9678
41.2671
6.25727
-5.23757
59.3524
-24.5183
59.6584
29.9621
-24.6023
-35.7981
15.8063
-40.4821
61.8728
32.9783
46.9964
71.1594
-40.9062
78.0815
-17.0882
44.2692
45.7336
-6.58018
-44.2982
49.6233
-12.7761
-4.54167
48.3561
21.5709
8.07596
1.18094
-10.7865
-3.84843
-33.6572
15.9101
92.9984
-47.594
80.3288
37.4972
42.6278
61.765
-7.23012
99.2264
42.225
-12.8621
18.5067
3.53435
-30.2276
2.67344
5.51347
-42.1917
-18.1198
-7.32304
24.7426
30.1612
23.8949
13.0511
17.2215
84.5346
80.7336
35.6428
20.5748
-46.5801
0.623935
33.0658
62.1442
24.1186
87.0301
-4.47186
-36.0488
46.1023
9.41137
35.6844
79.3085
-37.7334
9.29527
9.84137
-34.338
-1.4766
-31.1042
-30.605
48.0458
-44.3903
96.2368
61.1747
25.8304
-30.9833
85.2012
-42.8608
50.34
24.944
44.4915
80.9616
13.536
-16.429
38.1772
-1.45428
-19.3873
-28.9821
-29.5621
-46.9985
85.4689
93.7819
47.8759
-23.511
49.9943
2.26925
35.6536
11.8051
1.05531
-3.64727
-7.4558
16.4138
29.4144
40.4053
27.009
97.7767
40.7324
45.7987
89.5989
-25.6976
-12.8482
46.0139
27.7712
75.4105
8.03799
-18.6754
-47.9345
27.1345
84.8814
67.8335
-21.6192
89.8076
51.4297
26.5516
-2.56766
79.6754
-33.0442
32.6262
31.7417
-43.5122
-6.16385
-6.60094
31.2132
24.3282
67.4183
3.28271
-47.4369
7.20222
33.3118
-23.0189
53.5523
-37.0925
53.7255
-3.85221
-31.2035
-14.8192
13.1352
26.4344
30.589
34.736
-1.60472
53.7472
-35.9066
94.866
4.33706
74.3343
-22.7554
73.7309
-32.8203
99.5733
-27.3443
-28.6159
-25.2362
82.1359
-41.537
56.9771
-24.0665
-20.1695
49.842
-19.774
80.8056
20.247
5.06247
56.0182
-48.4736
64.5667
-23.5244
99.5622
21.3672
-38.485
37.428
21.9265
83.4416
66.0316
93.3761
17.8618
-37.0224
-23.263
6.08917
28.5691
58.6285
-19.5147
-13.2448
83.7221
-4.24888
2.383
58.5247
18.4542
-7.84373
-6.72192
32.8627
83.3047
69.8025
-23.4333
79.8714
7.98512
48.1612
1.24267
-10.2017
-23.3077
21.8163
88.0467
-48.2672
-25.4396
38.4462
55.0624
25.3921
9.54754
2.14303
-18.6541
-4.57928
-12.108
61.1442
99.7076
46.6848
32.4021
-1.49183
-2.21039
3.6945
-22.3066
77.8881
26.561
96.9571
2.52224
-49.7022
4.4808
26.3464
-22.2409
93.5945
94.9737
83.3538
3.40084
8.23071
46.5656
41.7642
71.01
24.2247
41.5848
-45.4172
-10.8265
-5.14327
19.6279
80.7084
79.5439
29.092
-37.7298
96.7561
-44.8244
89.9627
76.691
3.05566
37.8268
0.0479865
-16.3984
-23.7418
65.5466
68.6332
-27.5205
19.2333
-34.3818
15.6758
-1.14287
27.166
-13.7999
-36.7468
58.9679
17.06
4.93701
92.9946
0.0796927
62.7459
47.5084
85.7929
-4.02589
-9.51468
95.931
6.46038
81.2801
42.3243
0.192856
-42.8477
10.9089
83.562
43.4729
28.9083
33.1966
-47.9625
-14.665
-12.1948
-47.3721
55.7781
43.8125
81.4695
18.4782
-20.2776
-45.904
12.469
-45.2531
61.2275
33.3625
17.7206
-22.1326
36.2
27.1624
41.2941
94.7487
71.0389
18.9818
42.4432
56.8159
63.4254
41.632
-40.9708
-18.4385
4.30017
21.3176
76.3315
89.5103
13.0117
13.6387
-39.8193
96.2639
78.0486
-34.6911
30.9
-22.383
8.16716
90.4106
6.73314
42.2665
84.7874
-11.1567
27.9268
61.7853
41.8084
62.4431
-47.7485
94.7125
41.5468
-42.8325
51.6055
-35.6399
-22.6789
44.9423
-12.4491
-48.4353
-18.3706
-15.2485
-49.8114
-31.5811
49.2416
78.0948
-14.5592
58.0787
4.77448
37.6574
-39.2001
-14.5666
32.6697
94.5242
54.0297
4.92564
-43.1458
6.57161
-24.5001
21.2563
51.6958
-3.47132
24.4227
99.4875
54.4428
-33.0494
-48.556
-8.23
91.6758
-24.662
75.1786
-23.6532
20.192
45.867
81.0692
38.6702
-13.3306
-4.90545
49.3763
96.5848
35.0198
-41.5908
-17.3116
-40.6339
-41.0674
94.6105
65.3117
-15.0823
75.2776
-18.2202
61.2375
-34.0536
90.6817
10.9355
-28.5039
-20.1378
80.7311
11.936
67.4662
80.7624
-34.5845
60.0312
98.6074
14.2924
24.2452
38.3237
7.26299
44.8742
90.5622
79.7032
53.8164
-22.9379
-46.1533
11.0607
-18.644
84.4369
63.0815
94.6299
63.9993
17.6626
81.0573
31.9402
-38.4411
66.6258
-19.1765
84.111
-12.8667
73.5849
29.4626
26.9789
94.1774
31.055
62.069
-28.8903
78.4757
81.2151
-31.5374
31.1755
92.1533
42.7027
-40.3909
81.8902
80.4881
-15.454
-1.25503
0.30351
85.6945
86.6318
31.6017
34.6249
-47.9038
69.7162
87.8078
-48.0444
61.2885
70.4323
-49.3964
75.6766
-16.2414
89.3506
-20.1964
24.2092
-26.0755
87.9714
0.37809
68.0793
-33.0821
46.1199
1.56941
57.0994
-46.2007
80.8717
-4.81312
64.2026
82.3432
92.1827
74.7955
44.983
50.4932
2.88456
47.0156
43.8547
62.4884
59.5401
-22.3824
-1.28369
38.3897
3.9206
-10.8848
82.9914
-40.8908
90.5786
53.284
66.8171
-37.3546
61.0071
68.4283
0.201516
79.7697
8.04951
-40.9808
85.1995
54.0085
-25.4027
63.9963
23.2762
18.667
76.8654
10.9708
55.6203
60.5641
52.5124
-20.7364
1.44038
24.6138
20.9461
34.2818
93.9675
66.7741
21.649
92.2834
92.2681
95.834
46.5554
-14.7636
-37.0665
78.0363
24.1596
-37.4067
65.9678
68.4009
4.64226
-36.0054
68.043
24.5124
-36.2706
46.1606
47.7269
17.7456
-36.5541
60.0815
33.3206
41.4488
91.4596
41.8077
-17.2714
-8.84984
84.6649
68.1722
98.0851
7.78419
-30.0635
92.1413
69.924
38.2362
76.6431
35.4823
-0.0692024
87.2327
67.8573
-11.8004
-19.928
-10.2357
48.2929
13.995
76.9433
79.1815
-41.4069
22.4128
-7.96796
58.9206
42.9035
67.6004
-36.0144
83.0605
15.9716
93.5459
-25.9118
15.5486
97.9435
-3.13291
63.57
90.3156
-30.1228
-15.2673
28.3215
97.4242
73.0748
-33.0936
20.8934
86.7662
-44.1406
36.0002
-36.5846
24.8785
55.5487
90.5997
-24.9404
38.4903
6.21114
55.6191
53.967
-11.2908
-2.18823
-27.4474
86.7245
97.1068
66.7131
87.0203
67.4935
-20.0221
-19.8114
88.6338
32.2478
57.9098
17.7747
95.0369
27.4046
30.5806
81.2796
-36.8103
-48.7468
66.1001
-41.457
50.5646
90.3748
52.1705
32.7087
92.3898
14.5079
0.0832574
93.4317
-36.3619
-20.4597
12.4604
79.7018
81.0213
49.5048
78.841
-21.2437
30.961
60.3405
91.6116
38.6992
-45.4376
37.5031
51.1217
-17.6015
-8.95056
-42.1535
3.89289
38.3056
20.0601
86.3288
79.8468
2.02187
1.85684
43.1965
18.4781
-10.5835
63.1403
71.9871
39.5262
4.18962
42.2915
35.9332
-2.56742
-42.098
54.1494
79.8939
50.673
-33.5921
24.7472
47.0211
83.7886
-46.6143
14.3344
60.9208
98.5836
78.9821
14.0749
66.3648
39.3379
55.7717
56.8361
-26.2559
28.8834
97.1433
85.7385
98.5134
53.1595
48.2649
-42.7178
2.27054
24.1395
28.726
78.2805
21.2036
93.0549
31.5363
-39.1756
53.4077
80.7737
-43.3166
75.7998
83.6847
96.0471
-9.63224
-4.70895
55.8843
-44.4227
22.9841
71.6999
52.7024
-24.2282
45.8399
24.8845
22.918
73.8913
40.0997
-19.4968
-46.738
-42.4766
47.7341
49.5621
-5.79367
90.1257
91.0894
87.4773
34.6966
-29.4423
-21.0465
-33.018
-20.9298
0.716134
97.7354
98.7065
64.8459
17.7651
13.0358
5.69282
58.5867
75.4309
49.7914
64.9606
13.7881
96.2809
26.0857
38.3552
21.9627
32.6206
-43.3288
-40.0092
89.4482
36.9977
28.1963
-20.6852
6.44977
-28.1604
25.705
-40.3215
-18.1517
47.4482
38.2804
45.3011
-40.2816
48.8883
33.3923
36.2903
-12.4276
-24.3365
-1.7335
12.4034
-4.01798
61.3547
8.81062
-35.6694
83.9626
