-11.6079
-47.6645
-18.6363
81.1216
77.8639
20.363
31.602
2.59871
56.2582
14.4293
-39.8375
-18.3524
-26.4383
84.7554
-40.4081
-18.1047
65.6473
91.4866
-9.76818
-18.7763
-20.2766
43.7955
53.7652
51.8152
31.4467
28.3531
3.46169
21.628
-15.9216
65.3251
2.50548
-46.3432
-29.4217
78.2918
50.6309
-25.7544
32.6436
14.5129
-6.74147
-11.0525
-45.9224
15.9166
31.8943
87.1209
4.2652
-30.855
99.5002
-49.7847
85.1879
40.6563
-20.8583
-18.4129
37.8145
86.4006
-27.3116
19.6116
55.8496
-2.76965
35.6553
68.545
-29.4877
9.19422
76.1006
-11.0038
21.3776
-49.8441
-47.7664
86.4934
54.6919
-16.6519
94.3116
84.6645
77.1509
7.84508
48.9179
18.6109
3.86246
73.302
62.0014
34.654
-19.7317
78.2936
-18.1291
33.919
47.7312
35.6527
68.1668
54.4322
74.8841
-6.0451
83.6659
69.2873
-39.2154
28.3117
69.5972
-32.6181
47.0621
98.8014
72.22
35.8592
-43.212
-12.0085
70.7921
77.0947
56.4811
41.9332
4.15958
-46.8674
22.3165
85.4118
-7.24052
46.1063
68.2865
12.198
-13.2575
81.7484
38.9491
61.289
24.0053
-17.1918
66.2665
-31.2768
9.24822
27.4004
35.2225
-42.6155
98.9275
2.36039
74.2502
-3.25283
-12.7306
96.2975
-6.41911
63.5828
-0.191263
57.2649
-13.6343
-13.5699
-13.1761
-12.9002
87.5909
14.2785
20.236
-42.885
0.531163
-22.861
91.4718
-19.8665
14.4233
31.906
50.1431
-26.7014
43.6035
21.0512
-6.45548
47.657
18.3231
90.9088
71.3885
97.5616
4.96047
75.2268
2.68531
-12.2172
75.5871
12.6142
95.1598
79.3252
48.649
-39.429
33.3723
1.85721
88.7439
2.0231
20.2415
-34.5236
-13.8733
95.5305
-21.1025
42.9852
41.1004
54.2178
98.8432
4.72628
41.1328
83.5309
35.7179
15.3702
-9.21607
-24.3884
17.9244
-15.9408
11.8709
33.3128
26.5473
-14.0063
-22.2995
93.8439
-44.752
45.2387
54.4638
38.4851
68.175
90.0269
-21.4516
29.1346
-8.08796
-32.9151
50.9661
78.3278
-21.4942
15.2648
66.6732
-33.8811
21.2092
-46.0215
27.574
71.5704
70.9862
76.5047
6.95239
7.03434
81.6785
-13.9717
85.6195
36.5137
-49.7217
59.7223
-23.2692
1.53028
-19.7164
47.3804
-47.684
26.2198
1.72558
-36.8171
45.8319
85.9112
3.96034
50.4449
98.0483
-48.5722
-32.516
2.85282
99.7401
3.63037
-19.9974
96.9962
99.0642
93.0869
-29.3686
14.9845
23.1501
34.4387
38.3397
83.6715
-12.8968
3.61164
75.5996
-26.4283
13.7019
46.2595
72.3467
80.9843
63.5319
-20.2678
69.5639
-34.7244
4.43354
50.064
-49.9904
-19.6842
67.8371
65.8515
-5.6837
-33.4232
17.5291
58.9886
-13.5391
56.5229
32.8939
93.17
53.9968
76.9739
46.0259
75.1923
69.004
-30.2002
0.839729
-33.211
-19.6399
60.6851
12.3172
8.08088
-36.3932
88.7666
-11.1748
-41.0305
-2.625
-41.7788
26.8051
89.144
-32.25
54.5645
59.5838
95.0865
46.6778
74.4737
14.2492
-37.9061
-25.9656
43.0131
28.1831
46.6564
94.3916
79.7767
-38.5692
36.5602
91.7495
62.4523
-8.38535
-11.7136
6.64728
52.0188
77.0483
-33.7248
6.1855
-34.0499
84.9738
-39.0798
-21.003
58.2034
99.9906
73.3346
87.1098
8.21771
78.2301
-9.46928
7.48167
61.564
74.8169
98.6397
7.27726
34.4334
30.9236
-14.2399
12.6691
46.2049
34.2815
17.3961
-43.0191
-1.00571
-5.33009
81.0962
52.2968
96.1329
52.7857
-13.6183
-49.021
0.211665
-47.7606
50.8207
16.9681
31.5687
25.7907
-16.4424
-46.4009
80.5464
32.7678
35.0014
-43.5411
53.407
-42.2283
52.397
42.5597
82.1996
-6.4537
43.0951
51.9916
-45.3184
-22.0992
5.81701
63.6794
46.5246
-48.4662
-19.8852
47.1608
-38.274
-42.5844
7.82999
71.2908
-3.09079
6.62995
64.9937
-0.207494
-4.86904
-22.2207
-10.3924
-23.4116
-0.328227
39.3552
15.6003
49.1558
10.842
-49.1309
-42.0156
79.7467
-20.5309
-20.8273
-17.0488
88.0013
77.9723
12.9906
-38.2184
-6.11901
77.4218
51.52
31.2596
42.7027
-7.21854
-7.34443
60.2806
81.0132
-39.7723
72.7593
50.7712
21.7968
42.2649
89.6432
-46.9313
42.3967
75.105
46.4907
62.7168
91.8445
96.8507
-7.07259
-47.4147
78.8165
80.4969
76.8733
57.6481
-43.2234
93.7126
16.175
51.3191
-32.1433
92.5899
41.0235
-32.0204
98.9827
61.2731
22.6559
4.91864
62.372
-41.4205
-42.1501
8.23007
81.7395
30.0292
53.7953
-38.3063
7.05231
-30.4777
83.0009
-42.0349
30.1296
61.8185
-36.644
11.5999
-12.2472
80.4706
59.1985
-1.36901
38.0087
33.5525
-44.0626
49.6718
28.0676
-31.0544
50.3932
68.6529
61.7918
71.6784
20.3623
46.4406
76.5911
44.0931
43.3138
-36.8858
59.2825
21.3489
84.5641
36.6647
39.8519
84.8381
81.1613
16.913
-7.22522
81.3164
-30.7874
-25.2045
94.3839
35.8576
-45.8654
11.9049
96.5457
-9.90898
91.0121
96.6146
24.0506
93.6317
99.6255
58.6504
-28.5338
38.1502
-21.6528
81.854
-22.6162
-40.9893
24.3504
31.358
13.2076
43.8205
-28.6465
78.3645
-13.8581
-34.2327
-3.23991
92.6303
22.1943
16.5701
23.9756
50.2025
-16.4021
-20.1466
23.9559
87.8912
23.272
34.3319
67.3832
40.3249
66.7973
98.9522
-33.1308
-6.9224
-7.68665
33.7624
36.5441
86.3622
53.5303
13.8473
-30.6628
-46.951
-0.247078
92.409
-38.6201
68.556
-1.24045
2.98085
60.3898
36.6642
60.7436
-17.3113
27.4548
-13.422
11.449
68.1665
12.3272
21.7193
-23.5779
-25.7322
-41.9745
-32.8812
55.8516
31.3854
-45.0987
-34.1867
88.774
-43.5111
-16.4105
11.7054
57.8245
15.5866
-21.0859
53.2262
42.9175
35.5074
-43.3949
72.1983
3.61273
22.805
53.6856
42.8375
89.4932
-20.6952
7.51264
23.7626
64.1968
-20.78
42.7306
88.8887
69.7386
99.8962
65.297
97.7708
-13.1823
74
11.8619
47.041
59.6492
-34.7252
92.3188
-47.2774
3.70465
5.02326
-12.5382
2.38554
71.8434
93.0382
-2.38223
25.608
34.9002
85.8632
89.9737
41.6064
-45.4511
11.4795
44.2944
82.1025
-35.1576
68.7838
-13.3329
-39.7327
92.6486
22.2238
-1.75081
0.672181
-48.3451
-41.9319
23.6314
81.4428
63.7214
31.6545
85.1433
79.9381
25.6524
-38.4937
-11.7054
75.8827
-19.7866
31.3215
86.8108
31.6337
23.1826
29.0413
61.7673
49.5186
91.7999
37.6547
-41.4304
76.4196
26.7186
-20.7031
89.0194
93.7181
16.3803
40.7192
27.1874
92.4927
95.4483
80.5905
36.438
59.8964
12.4338
-4.04504
15.6
-37.0131
35.0075
-49.5674
16.45
-35.2409
56.9209
93.8866
-31.4315
12.6673
47.9397
20.2908
76.0407
94.6883
19.6571
60.1179
53.5739
79.6004
68.0653
81.642
4.43872
26.4232
-47.9679
-33.9043
-45.1466
-46.1708
78.2839
88.3351
65.0869
-46.3512
59.8292
65.2627
-8.36588
11.7442
87.337
47.4531
48.8702
87.3114
49.5069
99.4936
32.0795
-37.5934
78.1152
66.3238
72.1717
63.763
90.4483
-30.7121
-6.15209
51.4746
88.7322
63.3945
60.8318
74.5041
-30.0711
-14.2131
-20.11
-11.7102
-41.9183
-24.1372
83.6028
70.4501
49.471
62.4543
-21.0928
29.9133
8.54919
77.3814
3.72997
94.4599
-36.7616
25.1009
65.0887
-22.9399
39.8239
-38.3975
26.7422
-4.17358
70.8255
-19.1674
60.4521
49.0419
-33.4079
-49.1581
53.7955
-18.697
42.974
-14.7804
-3.61966
-10.8214
43.1379
-0.11709
76.9271
74.0963
87.2426
25.7822
80.0852
9.34119
86.6878
13.1781
34.7399
-23.4279
50.1069
85.2704
-32.0193
15.223
-48.411
35.5217
75.5327
23.5683
-45.3705
-9.43706
-9.64577
56.7637
-14.4459
-2.55582
40.9447
26.0144
38.7501
-24.3437
81.0145
-12.6845
59.441
-13.9644
9.30641
43.7216
-10.7367
36.7822
44.9153
3.67773
-46.3189
79.0509
41.9667
64.8765
-39.8871
-46.4052
78.1246
25.6569
17.8248
59.1627
-15.7961
42.0571
6.4719
28.5262
-9.80725
65.0462
11.4323
4.26804
88.0045
81.8367
-39.9065
18.4105
74.4101
89.6323
49.8225
-12.085
16.838
41.3858
-43.2976
85.7232
-22.4024
5.21631
76.6469
-0.987261
84.9794
18.6566
16.6853
-12.9055
58.0138
63.5616
62.7038
43.7994
98.1252
69.8083
80.4829
44.0357
47.8343
-37.3612
50.5832
-34.098
-47.6565
10.0637
34.3459
60.0451
7.16419
46.0712
42.9395
54.4549
-36.9821
16.2
42.9294
66.8607
21.0672
90.2118
61.3066
37.5132
-39.3118
53.6938
-46.706
-13.0694
44.3407
4.96424
57.9736
71.0373
-18.8457
-21.2565
-41.2194
-16.5526
11.0731
-15.8749
85.8334
67.55
55.0031
62.4086
-2.95279
-26.7352
-38.5783
28.145
37.5546
44.9658
-45.743
34.5696
14.2653
1.61988
-37.4919
33.8418
4.15697
57.1634
-34.3697
12.3743
-48.2375
47.404
3.16913
23.1993
-5.95948
-25.5819
69.2577
28.6047
61.7992
93.2618
36.3126
89.6325
55.4211
82.847
43.1399
-40.1659
30.6064
93.6664
-24.2226
12.3159
98.0573
45.2337
12.6598
-5.79473
41.6933
29.0596
-36.6683
-4.54749
4.59585
35.528
70.9986
-19.1283
62.0849
-9.1497
-10.0846
78.9813
95.6503
27.4221
22.2852
98.4014
81.0581
36.9301
88.0274
76.923
35.9823
70.696
-40.028
56.7049
61.4298
61.1636
63.2488
-6.83078
88.2999
75.4442
99.2313
52.2438
87.7647
21.5173
95.9843
-46.0324
41.2297
-16.8426
-21.3377
88.3542
39.1439
-1.29143
-11.2083
79.448
-27.7768
-3.3532
30.7486
49.3987
51.2167
56.3757
95.1194
23.5569
50.3267
68.6375
70.9416
-18.3044
9.62577
98.2353
1.07591
-20.5474
58.4774
87.2141
74.4622
10.5654
65.0296
22.3998
85.6777
95.1585
96.5237
-41.7269
79.5465
36.0249
-40.9274
20.2583
32.4228
55.0093
49.7824
-18.2074
51.6199
1.44403
-48.631
31.5998
64.8591
28.9618
-17.4139
-19.2694
-31.8338
0.969746
60.8335
89.0787
71.4497
79.6634
37.4503
14.474
28.7227
-39.0905
0.129753
94.1159
25.5299
-40.882
62.4405
21.2346
83.6747
82.4262
77.6605
53.3421
-40.3672
28.63
51.9728
22.797
64.841
-37.8878
54.4964
-27.2534
87.6298
56.5222
7.58593
-23.8733
33.4076
13.351
43.1892
42.4372
-38.9274
3.25492
-42.6658
15.7203
-12.9608
79.2326
58.8232
-5.74732
-42.0532
20.2138
-4.13006
72.1436
70.1607
-11.6157
-46.8188
73.794
38.993
-39.9921
70.1663
3.13146
3.27235
-27.1913
76.9019
-1.68417
48.7653
53.9564
-4.84898
10.1164
-29.9852
3.11434
53.128
-2.68107
25.0208
78.5966
-15.2987
26.3386
11.2131
49.855
50.9501
66.328
44.8712
18.808
11.4835
27.6598
-2.19544
27.1497
-2.37548
51.3471
-24.9707
7.21702
-20.7225
98.909
-2.04087
29.6696
-31.6444
29.951
65.556
67.9434
43.2931
-34.4123
-9.40456
77.5488
-1.09675
-28.0345
54.2255
84.2903
29.5332
15.4497
99.8614
77.9574
18.6877
-15.2367
7.12022
41.8136
63.8401
37.9493
18.6537
59.7534
87.4319
-37.8009
74.0415
64.3087
29.0117
21.9192
-10.9968
-21.8127
7.75385
98.1446
42.569
72.6982
-44.4138
-31.3642
-10.4986
2.23274
1.32572
95.7506
16.6174
67.4026
93.4628
22.7257
-5.00968
-29.261
-40.4729
79.6944
59.5514
-12.3733
52.8435
47.2198
79.2894
-4.23804
1.52906
37.8375
3.44681
66.0048
77.9254
27.8312
5.37466
-27.5864
-33.6361
66.1253
57.3101
-30.968
51.3084
44.5341
-45.2913
26.7075
-19.3532
-40.334
49.4722
-39.4831
-2.44194
62.6169
53.0731
-1.33036
53.8771
91.2241
92.6387
51.49
64.9012
35.717
45.9361
-43.0319
6.35475
-23.1419
0.903513
44.1052
22.7377
76.5453
41.2578
30.3479
36.9415
18.8918
13.8034
89.9531
90.202
-38.1617
75.6262
56.5157
18.1729
41.8229
80.676
98.956
31.6452
47.0116
-39.9306
79.0791
94.0656
41.5054
-20.4326
-21.0928
22.76
47.3389
-33.2004
17.7037
-47.8288
25.0778
17.2668
82.521
10.4695
27.1034
-26.6198
40.3901
28.0709
-44.5545
66.0827
16.7794
-40.2843
-31.9614
-30.3479
-5.3473
34.788
-18.5563
-25.6072
47.7527
-10.3264
96.4744
5.24416
70.2983
15.1359
20.4852
26.1787
38.6323
98.1275
32.8972
75.2149
5.62479
25.0466
92.0055
-36.9985
64.7205
-10.4737
92.1436
18.5257
51.8371
-7.87683
73.7018
82.0333
71.5654
0.645312
35.7963
54.0462
62.4076
74.1835
63.1212
95.2297
-4.18118
89.8465
-20.6846
-44.6993
-31.1867
51.4313
-22.6532
64.1882
96.5265
99.9833
54.7625
8.5066
62.0932
84.859
48.4823
20.123
15.7833
10.9081
91.7887
-40.4199
99.7108
17.0984
61.3633
32.906
-6.24244
7.89002
51.4207
53.6209
53.2791
-23.8741
27.7423
39.3913
41.4049
56.7331
65.0011
87.9724
82.8122
55.7347
-37.9811
23.5498
7.58207
-49.6643
-3.07588
-24.6523
67.3568
78.8145
37.0899
19.6711
82.5369
-15.52
86.9032
-4.28814
-44.3252
79.4691
76.703
-46.7721
-4.43774
58.4577
30.7009
-30.0888
43.0557
33.9599
56.425
-37.4594
87.6817
76.6929
54.4488
-1.83827
30.9339
7.28755
-7.13874
64.8224
95.7553
26.5162
-2.65931
48.4717
25.988
5.21584
24.7725
-29.5698
-28.8125
6.19682
-19.3635
32.8827
87.0095
53.3963
23.6481
76.5492
3.16338
-28.8139
-25.3872
32.1374
35.6373
66.858
-36.9627
-47.9057
63.0844
-22.87
93.6412
-20.6872
41.9533
-28.2232
8.08214
25.8615
97.0403
-13.0455
49.8623
-25.8284
0.165587
59.8517
-46.8261
91.614
-46.8217
0.904891
62.1095
44.1716
13.9989
-19.753
16.5798
91.6882
17.8953
61.653
-16.9017
-22.3758
12.0122
-21.177
-11.3606
40.7035
-13.3036
-32.3111
83.651
5.98515
40.8655
64.7149
38.4361
99.2819
97.8428
-46.8789
31.9211
-5.6272
-0.365113
14.5341
64.4533
-44.9858
0.767568
50.3577
-24.0722
50.8465
57.5796
-37.5433
-1.78749
-5.95734
71.8901
52.8528
-48.0991
-18.5274
-47.1172
91.8176
43.9143
-27.8985
96.2979
71.754
61.2657
5.11122
47.2044
9.8058
11.2071
45.8977
-13.7408
-38.8718
-11.9989
87.7959
51.1443
81.2293
63.4761
-28.4734
-23.7255
42.8624
99.3162
81.418
58.7867
58.6399
69.2235
85.1556
-10.4749
-29.1229
5.71561
63.3153
27.0462
-16.4723
59.5173
75.6415
-9.17074
-6.14762
40.5761
3.2009
-40.3976
-41.6608
86.6559
43.1695
-27.4159
36.9921
-14.8239
11.4366
-26.4242
-40.1548
-40.6748
36.468
32.4651
97.7518
3.55431
33.2596
82.127
31.2841
60.8604
-11.6145
-13.9729
-45.8386
-13.6598
31.2019
31.0966
28.0555
70.5452
-40.6689
39.8289
-35.2256
76.5226
90.511
25.0072
-49.8995
93.1224
-29.9493
-20.334
60.0281
88.5575
-25.7673
-0.471273
19.3768
-10.7068
77.3811
-20.1271
-5.83495
7.83065
-34.8359
15.7321
48.8827
11.3023
14.9208
-21.7702
-15.6084
16.8469
-10.1277
12.8401
67.8632
54.9202
27.7959
-18.0992
79.9931
24.7345
30.4179
-30.7219
-10.2876
43.9588
66.9202
98.2696
68.2981
53.3247
-10.3255
-5.81851
56.1892
82.8673
-34.4041
34.6637
54.5665
-32.604
79.7877
-0.144796
-43.2987
-22.2094
66.8216
79.4016
-36.2056
97.7821
49.4929
24.4456
25.8639
-41.9195
-34.2333
14.9097
-36.8082
12.6392
84.3296
90.1686
9.07254
-48.2785
10.2466
45.7521
28.358
88.2532
63.3264
88.7289
-0.269839
-26.8309
-32.5693
79.4252
-32.6604
-0.00189128
53.4134
34.5593
14.0935
71.8952
42.005
33.8531
84.3454
33.7534
-27.4015
-48.4486
73.4197
34.3476
52.6897
45.2784
58.9139
44.7511
4.00983
38.851
-2.3822
73.9563
81.7167
5.67977
67.9707
77.7422
50.7188
7.60477
-11.4207
75.4643
-25.3722
-40.7976
8.83898
68.4072
-44.3877
75.4489
98.9859
-45.2592
5.82647
43.3853
61.5601
58.2439
29.5768
93.9571
76.605
66.1819
19.8115
87.957
32.5772
40.979
47.1507
15.6468
72.1833
38.5209
88.2751
-17.2201
4.98641
84.9209
28.4024
87.0781
57.6708
-31.9143
-10.9659
24.1954
-11.0585
20.062
11.6554
6.8116
43.846
29.0735
38.8805
45.8557
2.30765
69.1117
70.7104
0.224926
26.8009
93.2571
-25.7785
23.318
38.8774
13.6734
66.5641
-34.9408
2.26207
60.1334
-19.4758
80.0744
-8.00815
82.4654
-48.343
46.8357
-46.6269
50.0123
45.3766
67.3943
38.0326
70.9274
15.9208
17.4774
53.15
4.61707
12.3519
95.5882
-6.47465
78.9458
46.7323
83.9774
-0.032958
61.5325
69.352
49.2812
-5.69141
95.5601
-42.4726
67.5943
-16.0946
57.4611
73.3076
20.9516
56.1301
51.783
-9.60853
9.46732
76.1153
-20.006
71.0619
-29.5527
19.4652
56.8512
59.9594
70.3403
16.9471
10.8381
0.676907
12.6795
70.224
54.9811
-41.0771
33.1762
77.2903
-14.0694
33.4587
-40.9254
-47.2816
29.1751
-17.4136
-46.4948
-29.2163
-49.9188
65.5593
60.7797
-37.0213
4.1707
-26.9849
17.2592
1.06792
37.2321
48.7868
30.278
17.5916
52.0623
55.5444
44.247
64.3013
1.7733
31.1252
82.4164
75.6443
43.4304
2.51034
23.2282
12.7714
76.9033
82.5916
58.9127
34.6393
-42.1441
77.3666
34.0201
68.0094
91.1328
-13.4105
50.2076
82.037
-11.1601
56.6852
-11.9796
-28.6013
-31.5878
19.1044
-36.8718
54.0461
76.4795
49.9428
-11.1943
5.56194
65.1148
57.0533
88.2205
41.1626
52.916
3.99533
-39.0109
97.9426
-4.58961
75.0081
-20.7129
-39.6467
-41.4557
16.5321
-43.1474
-17.3866
77.8195
14.186
62.0169
-19.3284
-35.7794
-49.024
75.5316
-42.6718
-13.2897
1.10429
49.5895
-20.103
22.4172
32.3293
82.8998
1.2267
97.7194
-31.5713
21.1776
-37.069
-32.3661
78.5183
57.0895
11.2094
1.00855
58.0754
-0.0677271
-44.377
54.0401
30.7705
-43.602
-40.1286
-30.1055
-18.4992
-35.2829
-7.78093
3.66337
20.0881
62.9386
20.8048
-19.9356
72.3032
-45.6616
-18.4227
68.2545
77.6128
-3.1232
8.21091
59.814
30.3772
-6.78555
47.8852
24.7174
3.61748
-1.22045
94.6623
95.5592
94.9934
-39.6566
51.7497
-33.4126
-8.34647
1.98955
70.0336
-10.5885
4.08953
-26.299
20.725
73.2701
2.52062
61.2813
66.2773
-8.59794
-49.5125
31.5866
35.7381
-38.7262
-4.94208
97.0038
-23.0136
31.0708
21.2976
71.6551
69.5011
-36.8179
69.6826
34.7622
-7.8502
-10.7573
61.1524
82.2069
76.7956
81.5361
-7.69997
12.7903
67.3353
-30.6427
5.89796
-35.7846
-5.63548
-42.0949
53.4316
31.8311
50.511
82.5621
19.565
-37.3664
70.7844
-12.0545
-34.3883
11.0152
94.8525
46.8379
-34.1859
-27.1973
-1.1906
81.9964
52.9374
98.3487
-33.8312
86.2075
37.6599
-5.30729
5.26658
56.6741
83.5116
10.8159
-38.2558
56.6289
-40.2922
33.6186
31.1964
34.5954
54.9085
89.073
-34.1299
-45.394
8.48649
-7.14669
35.9176
-40.839
52.4675
-43.8187
67.3717
-20.3221
6.3806
25.391
54.9922
-0.00368124
22.9443
-21.8847
-12.9616
67.3935
53.4313
83.1463
41.4169
-7.52969
0.723204
60.107
24.8319
52.7763
85.6369
-6.93314
53.4016
-39.9345
72.5639
-49.4028
-18.4197
-5.17728
65.1668
70.0994
99.004
-17.7807
10.1771
64.032
-1.10618
-38.7416
-35.2524
-24.3817
16.8481
-16.2892
2.12158
44.0244
34.6953
30.3925
26.1719
66.2071
-1.90962
78.0754
-2.46993
10.3708
94.0873
3.46031
4.61254
-36.8282
94.7133
42.2216
92.0639
-28.0981
36.3357
88.2217
70.8973
-45.3713
67.8653
-30.4926
93.2637
57.3463
12.3415
70.1947
-23.0959
11.1257
-37.2094
-6.10662
53.2552
65.1088
-48.7815
67.2675
66.3586
23.6885
93.7451
-23.3043
20.9229
-26.4768
-28.7865
29.8269
4.54794
-41.8065
-46.1564
57.179
-45.2261
66.5366
95.3466
13.6196
-17.9283
59.9752
73.9878
35.9192
29.5064
95.3768
60.5547
67.0712
73.0617
-47.8831
71.0676
32.6335
79.6975
-10.9552
50.5882
98.8942
11.5945
51.8718
-41.0311
77.2832
37.8352
18.0287
-19.4777
8.63156
77.1653
20.5374
84.5661
-31.1385
-4.40021
-37.6076
87.5853
-42.8074
-17.1073
-1.46086
60.8381
53.2443
-19.4376
98.5233
32.1766
-32.9218
-17.1948
33.7191
91.0057
96.439
2.23535
0.698014
56.346
97.2406
41.2719
5.31032
-13.5716
45.3672
77.4418
38.4244
-41.5459
74.0348
21.1671
48.0278
76.4495
13.8471
-43.7639
-49.0156
30.6634
30.6344
-28.4247
83.9089
-45.1159
94.3953
-22.1711
92.5757
41.7194
-25.3806
95.8914
-39.3713
16.3845
44.3273
26.487
-37.1687
1.21184
11.866
-28.0378
57.8394
90.8693
16.5393
94.2044
87.2389
-25.52
70.0616
15.9367
-44.7785
71.2186
-19.443
-43.0597
-36.6715
30.265
68.2479
87.3304
71.0635
37.8284
26.4272
42.9527
59.1986
18.0164
-43.3836
3.17692
57.158
23.481
15.326
-12.0879
42.0283
8.39359
74.7864
-47.8773
78.5092
-8.76315
48.4322
-1.80982
-48.9692
-1.23244
47.0781
-20.2539
21.9504
67.288
34.9797
59.3102
-49.5899
-19.657
63.0998
22.6616
-12.4569
-11.9952
79.8182
15.5957
14.8564
80.1358
43.5327
-6.02227
-13.4469
-46.1811
42.1457
71.3259
-29.7925
44.6766
3.11731
78.0751
35.0959
91.0458
38.0453
24.6531
46.3547
33.236
84.9169
-5.79535
11.7892
90.0795
85.5735
-42.083
30.1788
-10.0212
64.0921
99.9148
84.2084
17.2936
70.88
-35.0736
-39.3041
60.7652
95.2657
65.3667
60.5959
79.528
53.8253
-8.67553
59.7773
-45.533
32.1269
50.1831
55.624
26.943
22.8878
-18.3242
65.1728
96.1789
67.9558
67.4478
62.3644
40.8362
83.1693
-49.5564
-25.7838
-37.2428
56.7533
-49.416
42.537
-39.7939
92.4138
27.1312
39.122
95.5051
56.0041
53.7901
-30.3353
64.2638
70.4969
64.9632
1.50184
84.056
90.7113
92.5379
-45.6779
-6.05669
92.6678
53.2562
45.3338
-26.8636
78.3511
31.5132
-0.0348468
52.7171
11.9721
58.9884
34.9848
76.8567
78.2644
-33.962
34.8852
-12.879
71.0836
84.0539
50.4763
5.75969
11.1751
72.7852
35.5031
95.9325
39.5427
86.3598
73.0267
66.333
9.0825
-19.1852
30.0927
0.719521
22.2442
16.9323
-43.2156
57.5776
46.6217
-48.6857
-9.1174
-30.6463
-31.1903
30.7137
-41.5553
-11.9264
36.6701
2.25623
62.9052
9.81161
26.0803
-46.7063
28.4233
77.4445
35.2653
24.6134
-7.23356
5.39082
-32.0806
18.0295
20.7654
-49.1005
21.8178
-48.3237
24.8191
65.3978
75.0369
55.3465
90.8964
73.8319
17.034
87.8851
95.3436
-19.676
-27.5668
44.3421
37.2789
8.20894
14.4154
11.0492
-25.5626
23.449
14.5321
38.697
75.4643
44.4217
-29.2289
-24.8259
50.0302
43.7603
25.768
82.5016
-33.3919
-4.04482
57.9915
70.3947
-47.8956
28.0401
40.4545
17.5581
96.5105
30.2104
30.7977
38.5992
53.7895
21.0822
56.3388
-0.50321
81.2935
49.2468
-5.8171
-22.3255
-24.9919
36.1138
63.5085
83.1357
95.6992
-19.1983
44.8882
-27.481
16.7818
11.3882
79.3858
0.70374
95.903
98.0551
-1.81046
88.4453
91.6965
78.2265
37.4892
3.93592
-26.453
55.3708
94.0476
-23.4971
-26.5293
87.6688
99.3118
28.6395
-39.8535
-22.2232
-38.8871
32.9642
19.1361
8.00369
-24.1395
-4.31034
-27.144
91.8002
66.8306
-42.9731
78.2569
11.7133
43.6154
36.3244
-46.704
84.7383
53.5351
57.2526
63.4047
-42.8258
3.14447
61.9119
-19.9786
-11.944
-22.4246
-41.992
13.4267
35.8056
43.3975
30.5322
-29.9693
-16.9196
76.3577
-30.8837
-32.3181
98.6437
-4.16435
79.0143
-46.3863
31.9435
62.6865
-39.4765
-10.2751
-3.77777
82.299
-39.2861
46.3544
39.1628
85.0097
-27.8503
54.76
-7.70458
7.29207
73.6549
24.0158
65.4816
94.998
-14.0271
87.964
10.0751
-43.7334
61.0783
-46.4948
77.6858
92.3427
68.1263
-23.7062
38.7064
28.2536
20.8617
65.0278
